encog,BasicNetwork,java,3.4.0,1,1576551644168
[BASIC]
[BASIC:PARAMS]
[BASIC:NETWORK]
beginTraining=0
connectionLimit=0
contextTargetOffset=0,0,0
contextTargetSize=0,0,0
endTraining=2
hasContext=f
inputCount=9
layerCounts=3,5,9
layerFeedCounts=3,4,9
layerContextCount=0,0,0
layerIndex=0,3,8
output=0,0,0,0,0,0,0,1,0,0,0,0,0,0,0,0,0
outputCount=3
weightIndex=0,15,51
weights=-4.3329573388,6.7107653237,-7.6397618844,13.9002349186,-2.2484088788,3.2956407256,-9.5765203148,-3.9014681073,-12.7682448002,6.3440155351,18.1234492077,0.7604789982,-6.10933333,5.660990747,-2.6112170131,13.1765233507,-25.4470482389,5.6891556966,10.3336913268,-5.142898451,5.4271427225,-34.9522214501,-4.7585066236,0.5988211574,7.9949000093,1.5101524386,-8.0970452568,1.0695972814,8.7400852279,2.6770920947,-3.9777132019,-11.1986349497,-9.3852968826,2.8557921106,-3.4755978363,3.2190820414,-8.2927333662,10.523091533,3.0092977515,-8.7897778805,4.9584343856,-3.4020235809,3.2561585196,-40.9470029437,-13.1117209376,-1.9922514106,-6.9754462181,-12.5979679186,26.0366369697,-4.6439292796,4.2985091918
biasActivation=0,1,0
[BASIC:ACTIVATION]
"org.encog.engine.network.activation.ActivationSigmoid"
"org.encog.engine.network.activation.ActivationSigmoid"
"org.encog.engine.network.activation.ActivationLinear"
